@CO	shape:(170,)
@CO	dtype:float64
VALUE_0
-0.06568351455349272
-0.030602899703810672
-0.03195992059391064
0.012431731266354126
0.04926674016580201
-0.0905199918981109
-0.23004152815376658
0.12611523260577806
0.003531280172626051
0.025432287909514184
0.03686992653662548
-0.016987523690159156
-0.011360281253878517
-0.026090034032400625
0.05108150330739624
0.139617377655887
-0.10829224135218211
-0.07188502915772906
0.04261052648456419
0.07085847473412087
0.149120891698085
-0.08616500488182656
0.043030231270213035
-0.1410703874256463
-0.2542090288655818
-0.19282326254256824
-0.24534406026822053
-0.026592213183201933
0.01318531843473093
-0.0779424575718873
0.22848508457559555
-0.03125113124208664
-0.11490179164034496
0.20184609793659164
0.03560649469793011
-0.1725089328810197
-0.08483210185596421
-0.1992211752044967
-0.1647016984303021
-0.04307843619261661
0.03607408414985005
0.0070871556549027825
-0.3556002006160332
0.026336534507359
-0.08775795025039507
0.17310167184887648
-0.02828439693959668
0.038024531072032394
-0.13421910742899662
-0.1306039593305722
-0.04241386918311575
0.034564823597931525
-0.12386493047801694
-0.053749430471246376
-0.2803108439156908
-0.009923400982582882
-0.0324833066988271
0.0202480159778399
-0.11043517514554008
-0.05899677916361323
-0.15103217051619927
-0.02678540900133152
-0.0947529122978627
-0.08369988865378816
0.02573728792702499
-0.09186514237359027
-0.1456439435095591
-0.03706087359289902
0.10299456574056029
0.10604940310364479
-0.022829952963746368
-0.34241981482223566
0.2529172821174316
0.006666486832261175
-0.09131873683435214
-0.14831067048921365
-0.08858081288004702
0.05313250888906012
0.1375806080242193
0.08517003377362946
0.05894972413769111
-0.10816592612886311
-0.028070586545382657
0.007046740387359591
-0.17075483165849697
-0.04198625221989135
0.10191745332327741
-0.031853743151840204
-0.1709697246095318
0.035174249106997346
-0.11038634791998522
-0.14652351881627396
0.0031125595604385853
-0.05671583657183431
-0.11920596173078629
-0.10247744741614545
0.011599240013516369
0.04845981586466535
0.015392654734215753
0.08104598423027028
-0.05704741682280695
-0.023930564976036347
-0.022544874996920268
0.07632387016987953
-0.07156765352832159
-0.052010808290924714
-0.01918163885585198
-0.09493698079831586
0.16991124613148884
-0.12565681779913881
0.07154823160364607
-0.042587313413499875
-0.05452653278393249
-0.026489517917075982
0.06518861513622823
0.052320335929838334
-0.15820560891073845
0.003947780725831383
0.2850959252665931
-0.026414254456086323
-0.1758803925536588
0.1394662713612472
-0.06974947493598753
0.010999653443556832
-0.019894902484801646
-0.006197739423059733
-0.023678913032328615
-0.06653305576934057
0.019934885238859383
-0.006150804475423423
0.020400275443072192
-0.009583849661017468
-0.13473985470134928
-0.1090753065030321
0.15669326776306913
0.06821598197457915
0.024685515915363263
0.00024611001816407995
-0.09293913881343743
0.020741345534904594
0.07487535655416924
-0.20858876842448246
0.0460207958164551
-0.0691154587451898
-0.07321633170861556
0.12338393933990459
-0.1604550624388448
0.09542177589760664
0.053371703390347316
-0.15595976302350423
-0.04773528226429505
0.051912548432440926
0.09429994262512616
-0.05358289027137878
0.00213620462617615
-0.02707063945671705
-0.15605434754183212
0.056724696291630114
-0.0359249122975833
-0.013664058134261782
0.03767058649647284
-0.07495386477937217
-0.14230109928401086
-0.06387559632245282
0.012155867060702565
-0.10094059687939888
-0.05903762310898367
-0.27126470783852424
-0.001376061638689142
-0.05729572492142006
