@shape=(293,)
@dtype=float64
-0.077828492912249025
-0.042239699849517955
-0.0716692118947444
0.040088160618771455
0.0052737251495865644
-0.011527772906687311
-0.03134785415959402
0.019013506669773941
-0.048802937985849761
0.026130852966434841
0.01718628965487683
0.010985479271098037
-0.042097446989773184
-0.0057380626788244935
-0.046842563521798282
-0.0011981687072998813
0.057313769767587994
-0.052655230050046908
0.052097141676297871
-0.077576964481502184
-0.056982232915854907
-0.018104117273671592
0.057518505455342026
-0.060956856895883434
-0.023610192124621725
0.075109120422610143
0.032780624909260522
0.034289392732235587
-0.0080777687565141889
-0.065940997880768015
-0.057421806655364269
0.0066112613958197661
-0.019348737650967993
0.0046482109123648111
0.0072258800069779682
-0.050320057753444405
0.0098450961481027065
0.028957394439578753
0.026932885721727664
-0.014501523195704238
0.051079139317037531
-0.00041932618106129728
-0.06054402084679774
-0.029061860822169456
0.02716981435221771
0.040393286041127956
-0.001581978002834591
-0.0037920868946828955
-0.035789825879234315
0.045658318670792501
-0.047723252870585986
-0.093012430379127237
-0.016996690921522544
0.054558964671874967
-0.016920320587614182
-0.056281733039450915
-0.0079161083021652701
-0.0082824759558439032
0.05292182654222656
-0.0090713123030601549
-0.0369375880458543
-0.053564661221456505
-0.012738763111654764
-0.028905932130364114
0.0096765130180301463
0.035120951172220916
-0.043751557583417207
-0.02680408255039838
0.056652322377207978
-0.063554086066618928
-0.027489836075335176
0.040128987994177752
0.024693716871652407
0.0044873485189920398
0.061805302546582626
0.019754429469352741
0.0057178949144191769
-0.037434671712334965
0.027786809784074058
0.0092064863192394351
-0.001128458213732835
-0.033084037740835577
-0.042932255338824742
0.047030249613988356
0.028058884568138674
-0.032221504866802898
-0.017654174225222086
0.047678179818900449
0.0040977999554416148
-0.013979575315981305
-0.092133445794566837
0.02602372137685182
-0.012167084798735421
0.0063620105133345888
-0.012032946271202284
-0.11577325848651306
-0.031237355935191027
0.010197851162272417
0.038776110808211715
0.039493956570433059
-0.013552154623709251
0.0033181701771790809
-0.054231513471830771
-0.045855539813327698
-0.039043864351532849
0.0053517939766324144
0.0024006698141771279
-0.0078797209806356436
-0.012769721217812419
0.004718346675987967
0.071280113579249613
-0.030207933173033202
0.029723100728593653
0.046391975299316164
0.05120690080480754
-0.050909498702594591
-0.00046895701491119065
0.014212603740328724
-0.01966998754686956
-0.021042175973180706
0.015589313229536151
-0.016426774909442721
0.041299785994391804
-0.038655303647218676
-0.010085474871464576
-0.024740395628422288
0.0072717813312095838
-0.042814230636582164
-0.029458982195119381
-0.11726460060932062
0.015181352591936103
0.014655078633793608
-0.043532275303349091
-0.011653600500819882
-0.013531213775175984
0.05215993723079182
0.022640224690562875
-0.048725778937051697
-0.013072348415376392
-0.0078318437601460362
0.0031022142845912384
0.0012154373895149886
0.001005393508786037
0.0090793678328522347
0.032574460375717228
-0.031134005231464468
0.019995939568238391
-0.008362777434423381
-0.031830606885535268
-0.045821894352186615
-0.027322546017408141
-0.029273359350175138
0.018867737571820854
-0.050874707716565888
-0.02928722799841027
0.035779017341099791
0.054632605251341337
-0.017083387095998485
-0.026973571776858236
0.028587395732475526
0.013784215088811853
-0.017363868453022437
-0.055417713056776834
0.027928936338400632
0.032033724331815602
0.027932088951031268
-0.020495828811779672
0.016061205664233004
-0.0039515110469942995
0.030046441167178223
-0.015418165627250442
-0.027496558738199804
-0.033063648953445886
0.032595098179609011
0.009492999502655329
-0.0059841586949340789
-0.047785978368188341
-0.088834968166938977
0.0036174819725958221
0.012340983372724389
-0.044773743322209798
0.07550352833323852
0.054348581994791374
-0.0025951238661818619
-0.014995972710313473
0.020612037630398285
-0.065726271022880201
0.06404544793859783
-0.082840555457668372
-0.033448448704554226
-0.0092665358815718808
-0.10257592055309663
-0.069355445864837995
-0.059536957550406173
-0.0066460345409672288
-0.014575691699503615
-0.1150443109082069
-0.060185790389592819
-0.052789647029954381
0.021179212855255421
0.050751672718305225
-0.049468949947939621
-0.038790822699640293
-0.0039317594655231963
0.00084684544560209097
-0.051823773231866752
0.055614549499763015
-0.065332853131484084
-0.062510445994910499
0.027845654815017207
0.036294196492287475
0.043681680038734856
-0.00427177451245714
-0.086462060555626011
0.034041998433918516
-0.0061467611082219225
-0.07870026763799462
0.042016696716520023
0.019566810678090407
0.015487138874305697
-0.064158946488299201
-0.055407159867373934
-0.025266946138995893
-0.05263494258771715
-0.020714500687440206
0.012757149695445096
-0.036880370861739065
-0.029087360811945288
-0.041972816654027606
-0.00013438423232064664
-0.022811791524664463
-0.075568121010942471
-0.053941042317360369
-0.057675305083816693
-0.10414945017859814
-0.0095814454813762662
-0.02093206320069314
-0.031464327147206123
0.024678417583347025
-0.031262122495832975
-0.017658516863442719
0.031827471605404424
0.042972322240591977
-0.087044472532058131
-0.012882388101276598
-0.044357224739090158
-0.13203786181712943
-0.056804754927447021
0.00023567359788759408
-0.003459006933278364
-0.027417098672668287
-0.040718809820417437
-0.012250328819737883
-0.029897825575894637
0.037552288813880196
-0.083846976894173073
-0.01036222742754679
0.0018204210897954877
-0.0074669681477817218
-0.017874125823720464
0.05090970592019381
-0.037498798411496274
-0.014577367092315817
0.0032941280481520413
0.031695381522999208
-0.017348364854715307
0.05783449561332097
-0.055437895973320238
-0.075543169118538131
0.064396236913481036
-0.058107298658210217
-0.0035718264186277186
-0.10318020559015234
-0.0027348557696857817
0.013884073731291743
0.044043862579235843
-0.017941323925884111
0.025837180368795877
-0.037297388556988213
-0.038454601183320357
-0.062344132737172417
-0.019746261360570297
-0.018143217873320731
0.022464906570308293
-0.057046083740171623
0.045032092622333882
0.028023453507019985
-0.082412838508971173
0.022792570757070568
-0.031244667921771496
-0.039531815460020492
-0.01131616325466585
-0.059809241562636367
