@shape=(223,)
@dtype=float64
-0.028878267540288698
0.011547938356281873
-0.037457464963609959
-0.035926442999953609
0.0072814154444826142
-0.018594112648312452
0.044546405251059094
-0.041995992015493692
-0.030806940399003072
-0.050991930121226769
0.035055145556219997
0.014834141698751366
-0.008941784096781813
-0.0016666581387948707
0.0083204453177859686
-0.053969131785974893
-0.0025242932671141571
0.050260476600354584
-0.0047036348536709004
-0.018953553649657666
0.043235329528712653
0.054312387009479587
-0.0059639025826491018
-0.020662388597512925
0.018030880381049569
-0.02763138692865354
-0.019166089821256435
-0.066713520694161282
0.05995937782053827
-0.011522876288491753
-0.0031398939019736958
-0.0040388775264025454
0.097450659327415631
-0.0025917706490921084
-0.070420686533485863
-0.034803561253892751
-0.027715824950410674
0.038810955476864986
-0.044480366926698676
-0.06935219865328987
-0.052410822276476962
0.032204260482347112
-0.0040283379903078755
0.018875254849862508
-0.083225654915130384
-0.018297942285689778
-0.012819858554189467
-0.042035061142125969
-0.059596352712259375
-0.075471069028241161
0.031296464251358319
-0.051119745695179422
-0.060460618447081886
-0.054376964212645394
0.012449795915389233
0.013614712061783878
0.061002098565903363
0.0036565690204665149
0.0063883258071306299
-0.093350688227297959
-0.022537855935120799
-0.0080480586603035257
-0.064751005988736857
0.00089991203984909549
-0.014865957402695237
0.0507501268127818
0.046735022743494933
-0.0073781553178443142
-0.0076970968567925254
0.034093874522061814
-0.02800485256810337
0.021586032100237861
0.0066987873874138001
0.05305688814902422
-0.087083264615005679
-0.0080529780666143899
-0.037465958739105125
0.080385054113215296
0.043336685598048555
-0.040397512346734679
0.021792959821191712
-0.014881260919079001
0.010676548761558709
0.056649928206009434
0.030481037209811632
0.016043097683426256
-0.0017745448243010739
0.064033270836833328
-0.13222548665438713
0.0095447092041719469
-0.0047052626873150729
-0.0133004386530756
0.0090527165674167114
-0.02974207051330954
-0.012624277843387361
-0.066445935351022833
-0.055575497747853524
-0.048033768125433432
0.071188888616885729
-0.048844769521202092
-0.046547033349917208
0.033280130951782935
-0.039574360472021022
0.027419873518108814
-0.046209967473644316
-0.010243042110225017
0.010165420495888172
0.035507448025191513
-0.015713880617023245
0.03357599116750392
-0.087722056748051253
0.017206888712961076
0.040704877374351169
-0.012979507243438947
0.012716954526635522
-0.020849605968036471
-0.055977070664552382
-0.00043146274898694069
0.040048976807707713
-0.024978214697293222
-0.037490967113885554
-0.03339038562026856
0.030667771474374744
-0.028032166215754918
-0.044391236029283375
-0.0054995268087795557
0.059307021384007612
-0.004345037364946484
-0.02008856969968225
-0.014924537650728081
0.024671524436894004
-0.0088277943003384034
-0.01574962205202483
0.056178105659279935
-0.010772802607450893
-0.034689674561764819
-0.013448350500798114
-0.043458488866011481
-0.012416309820656925
-0.0042204269509349013
0.043904736720769298
0.038182473970230092
0.056778729970175718
0.0054143373742436517
0.0021028931158483801
0.012355173201258104
-0.01377617456710643
-0.01867154034064309
0.006384547898324034
0.070761398408800899
-0.072584823868353729
-0.027185027162587042
0.025183402776066271
-0.05490321148432234
-0.022669086126383894
-0.0026312287208994619
-0.038610785604404292
-0.071902286856695113
-0.050115165298728968
-0.055118077860955628
0.008658855132845332
-0.0058382606467430433
0.032789989399197993
0.059710144217332999
0.03949753067071958
-0.10112100769449982
0.063152853476329512
-0.003717494263069299
0.008891064272962464
0.0076469890172314332
-0.022052982772166527
0.009372059854720961
-0.015372732720197516
-0.0088706414600323233
-0.062654166942245987
-0.043351058465148917
-0.028543577266092378
-0.025238803903708307
-0.021175721207996965
-0.019681562899012302
-0.021435567963507859
-0.051774778458282204
0.031177818816408732
0.0099797196342084945
0.039947311511194239
-0.0046474528827811752
0.027511760467010152
0.025353015682004657
0.054657763402254214
0.0034652241444282092
0.025855145138354844
0.010950642637311598
0.05084909153794865
-0.058989380715459387
-0.045034526381954508
-0.039698250463067235
-0.011978943881534891
0.048796128844725943
0.036823189937119603
0.043187154416734826
0.0073299038165060629
0.033962159783601689
-0.0094408732866977374
0.081523178952388267
-0.028626018152558972
-0.016234324348381797
-0.042145165566395096
-0.0047572614490145222
0.028177680749136756
-0.004843812956895165
-0.037563820419944396
-0.030591683369767864
0.017660742516791405
0.010967186804849339
-0.025540285033843077
-0.017702222312122696
-0.012661418994274136
-0.017814201701095305
0.014906916070180441
-0.01193121649121621
-0.06329157091161397
-0.028629947967370357
-0.05126653626325841
