@CO	shape:(170,)
@CO	dtype:float64
VALUE_0
-0.2797224840106142
0.033276463261807866
-0.048689938228154275
0.05168291476437705
-0.16302956966884363
-0.11694576917341176
-0.08773686620258912
0.07398969511700465
0.02104590702675393
0.15076382227380894
-0.06892462551754443
-0.16340172712177245
-0.10805990031690298
-0.031017752793682053
0.05270781103368407
-0.12035802776285649
-0.12673981174228235
0.08711676713197791
-0.09882611402350563
0.1435888034429025
0.048259708847990315
-0.14326307227572815
-0.012399832253420395
0.19360575535028257
-0.14055144129448635
-0.005765304875603259
0.019370962126094748
-0.218791248143822
-0.005018168401203271
-0.193758092676847
0.03185537788490942
-0.03155068863122854
0.04552078238568633
0.011053038586154008
0.057114010870059836
-0.20436557437307842
-0.037471980446455604
0.15349686454801184
-0.15072152102054498
-0.014077076831570102
-0.010440411468553927
0.012285741578321947
-0.1501663871697353
0.018071696051418028
-0.11846809727222883
-0.07545375319888764
0.04966922589561683
0.11292196053640094
0.021540071454783764
-0.0564738583136459
0.02581869729090443
-0.10066418178663714
0.03464765166912059
0.0459163086964217
-0.00543962501101408
-0.10232992803896131
-0.11473446057780813
0.034945566378687246
-0.06903860014297748
0.07062585145430714
-0.08285646222607265
-0.04098542603154843
-0.008504635806940712
0.10597626242993803
-0.1458219833892136
-0.028757569824233047
0.040746328482112494
-0.10209988713149352
0.011164722656598021
0.011900631625418942
0.012227764713069446
-0.08104058606045657
-0.13718368572154302
-0.037640597077036576
0.005166948154317796
0.012286107651054293
0.022268613880094476
-0.1104443665364817
-0.10663755756806788
-0.09093716683656755
0.029227387208337476
-0.07710517989578619
0.01852827124281532
-0.0020782035486825307
0.06239847173496763
0.018109940967822348
-0.03522365421363277
-0.0057580755959702615
0.02294232207723407
0.05293422021009761
0.2446508358945489
-0.17380856289515126
0.01382671149343284
-0.08398375934600803
-0.012739949587708098
0.01948671607149468
-0.06887922756486135
-0.2242644751727999
-0.04788274044332124
-0.18536050160641865
0.10996867361994489
-0.0679593941994857
0.15120769349981764
-0.12786733570946868
0.16266518939917818
-0.07320484810116248
0.30435793003657513
0.002449137144840829
-0.10589231055481024
0.04343300675625615
0.05000156664831869
-0.021264708097599852
-0.10086835941263343
-0.07141770351233818
-0.08494267334538666
-0.035112637910627686
-0.010621229767405847
0.033113920221125526
-0.1288837706886678
0.10626321322902411
0.2214126551108695
-0.05216186018079416
-0.08667550506847442
-0.08686640968088834
0.16132391818676875
0.01125397174137622
-0.11675607533345285
-0.03387328647609659
-0.09572495139171092
0.0853988587128839
-0.12330219920743399
0.12315902250010075
-0.17890810870831486
-0.041761393066031494
-0.16561911106921046
0.0717562090506344
-0.08610651062191163
0.043014310717280804
0.023737268814138818
-0.09092343489628135
-0.020546838084578464
-0.09205208464508544
-0.06668723995509285
-0.1722044588820357
0.02476398258607861
-0.06906909967058573
-0.2551169971007676
-0.1298767091370214
-0.046446198483163
-0.10152714769100195
0.10789498028814791
-0.09921533843415493
-0.07316230669854833
-0.07257012223617638
0.0014958387775217713
-0.11362638761215639
-0.1059983842311348
-0.029216583328150678
-0.12161461298629517
-0.01324008794158159
-0.16343859337619412
-0.031360242026331676
0.1744192471929614
0.09554728555276153
-0.05549782471181941
-0.004699799970581332
-0.052561150633319044
-0.03521648096326742
0.025294693922650876
0.02181576168327344
