@CO	shape:(170,)
@CO	dtype:float64
VALUE_0
-0.254990252638147
0.014858653522346329
-0.034993064322295736
0.02733561035375897
-0.18829004413894862
-0.10466998884824635
-0.13758506861278869
0.0801734660074207
0.021152399289093467
0.1343754358170675
-0.13609388099102018
-0.17555987614128968
-0.11906567976958912
-0.06684270967433836
0.04483779285886327
-0.14941881317226377
-0.17071222702751895
0.0726012015687334
-0.07279312471493742
0.10402122797857113
0.0003434416830303041
-0.12641339632580598
-0.017005447607898634
0.13874102024484936
-0.12349357710694546
-0.027957056135171285
0.023917561918721256
-0.2010857046877753
-0.012716871527164069
-0.232323141988703
0.04169333927844279
-0.057633144451718535
0.06993621558238981
0.017215025065006835
0.028260854107833903
-0.20230186371970632
-0.04000642322736993
0.15642482540067137
-0.13007552840080583
-0.007024467651137523
-0.09375760690783468
-0.01290477141298952
-0.14022288341199812
-0.05507328181686991
-0.14085814620316145
-0.12314783817205326
0.02785272093226975
0.10486464004527118
0.007299483787562443
-0.09891755696924949
0.056417356164576854
-0.11557864416824319
-0.016308550261651115
-0.012548748856564824
-0.0178095854740767
-0.09041822602642635
-0.1359061344009681
0.010488794199528318
-0.08772318878418295
0.03776348387025117
-0.046431148218995966
-0.052246762704875896
0.005148765091522689
0.0873721859634696
-0.15168944487747624
-0.051004533201239134
0.024742788718927548
-0.16275689565869284
0.00020883664133847886
0.015281835712887507
-0.014021851710500653
-0.09252491080214695
-0.13036501425660316
-0.04586091709967205
-0.016109345732042934
-0.012554740367280645
0.021851555521647435
-0.10830870222961729
-0.10017972536420565
-0.08908632880200233
-0.00935619614620954
-0.07230609797228194
-0.044565327366779386
-0.009206939188368653
0.08220238579323659
0.0175764048120341
-0.06690498971524073
-0.06559229059671028
-0.014666812601742168
0.041376268676970494
0.21916237423208626
-0.17648504535949366
-0.008616758234419644
-0.13320720788921456
-0.033016732276934795
0.04925980109865928
-0.08179143181251275
-0.23207553224223246
-0.05407242212238501
-0.22498989030208416
0.09197581867034112
-0.07283443116036362
0.1414645340199492
-0.14367832732517521
0.11305590479747829
-0.07404575037106347
0.2893847780353018
0.022326021652258346
-0.15612318919609747
0.004631341605863884
0.06589315047890788
-0.1079294648352954
-0.12526642783794875
-0.08597210216665079
-0.07954610079991845
-0.09746902853754133
-0.07231434727919345
0.0034058904172967804
-0.12920725947366155
0.06190501234510637
0.22371455289166092
-0.09045696884806335
-0.05893441130874435
-0.09493249550587272
0.2022212724141327
0.04970734295483949
-0.11903098268203985
-0.015505025911980452
-0.13064720179654718
0.055689573566620715
-0.11816820007538256
0.10954620402478422
-0.21629262166322963
0.011790970808432062
-0.1611021222108821
0.031212143759755617
-0.10444072778561536
0.00819561744245858
0.0643061931541563
-0.03919919250473639
-0.09265944383076025
-0.0894758393654009
-0.04308845902727643
-0.16640210443969677
0.023944914697072547
-0.10020384569960464
-0.29564265269991186
-0.11645176613938836
-0.018998472486903145
-0.12698441639553676
0.05895992334900127
-0.13477803526960505
-0.09303383153459936
-0.06895558769754544
0.013095052793009258
-0.11897981219834453
-0.1095469106869683
-0.05146713053051518
-0.15825136012933314
-0.03621638328753367
-0.20735259469734427
-0.018606042251129672
0.15262891798372674
0.09135556667092698
-0.07036231693500287
-0.01010461986204991
-0.03762993668385063
-0.06596494625587755
0.02690801607859216
0.02158667539590805
