@CO	shape:(170,)
@CO	dtype:float64
VALUE_0
-0.25849585646014905
0.040225177787154114
-0.026185431993490965
0.03725559498343827
-0.16538441997032297
-0.09228167661400453
-0.1256880156401002
0.08633265467685908
0.022113132827958033
0.15391751538075946
-0.10095306370885793
-0.1687663961928414
-0.11488124990804598
-0.057855651527406245
0.032467834693093015
-0.16051173145443026
-0.15188551009171883
0.07234064881915624
-0.07072211886982924
0.1104903927299972
0.003183972228064411
-0.13415244390416362
-0.0173410831331658
0.1547962836712629
-0.13336018556534004
-0.03743712782117777
0.012381405865775224
-0.2114343671895864
-0.025791090747636716
-0.21293904382110193
0.04149588027009048
-0.036673066624566465
0.04971474075116118
0.019591082197033576
0.03525689768146697
-0.1914011900899641
-0.04725967156757652
0.15274088676825434
-0.16122720361552978
-0.04136921351326967
-0.060209703827821
-0.0037056561935444824
-0.1351026827205754
-0.03369614376830839
-0.10411666196614842
-0.04657277102510122
0.015077469235957259
0.07754771342487858
0.017914134286040675
-0.0710284267939751
0.06260671591789709
-0.1320239478972418
0.01961377424845363
0.03858300991943911
-0.05492655291475266
-0.09410306319859052
-0.14434388427707762
0.04273439447178011
-0.05839158444715406
0.0703856249091366
-0.09589691457419967
-0.07848472372285839
0.008442201756186348
0.07374234341321247
-0.1492200732897827
-0.038903675641324825
0.029904713495308384
-0.12617774475493035
-0.00684914045361414
0.011720581870187374
0.015159695768490727
-0.07896578318508424
-0.1385164053481828
-0.022721484315516446
-0.013656836616571378
0.0007785867345173695
0.01720449539311937
-0.10015929756959739
-0.06471074917794821
-0.1028394180063259
0.011929294155889059
-0.05438686691749441
-0.001558528160390152
-0.014347270386367864
0.07791486778457327
0.018933480078153153
-0.044302163262634225
-0.0037092256840304504
0.017662365344264363
0.049337444026949125
0.2262582515599912
-0.17281175279934033
-0.022790648571096687
-0.09414934489840618
0.003798316187703955
0.05202609080567137
-0.08738609044096314
-0.20587098060963496
-0.05907073144371839
-0.19001123651688706
0.08826033838494703
-0.061698837927479155
0.14512079608341846
-0.1224143859626555
0.09598676878941785
-0.07985991812703128
0.30074304164546134
0.02060655486502876
-0.12429930147761475
0.024020085715494074
0.035918871220163746
-0.08673063143865953
-0.10153036098278169
-0.0825562611594305
-0.09297189839728308
-0.059244773256301134
-0.043590982851544564
-0.0074028737178112895
-0.11544692143179815
0.06466204356597986
0.2052745363350947
-0.07639543656474511
-0.05940514877494595
-0.07469196295204192
0.18535078487812032
0.0028707229352946074
-0.13154394549006287
-0.03745895786179402
-0.0747556060432161
0.07226597938541604
-0.10475053502512473
0.10605753982820944
-0.2026377612182792
0.002085797071045483
-0.1619078335072256
0.018117337333394497
-0.10288274451780398
-0.003339035266293413
0.04212633510507791
-0.059088685709035235
-0.05498066439498802
-0.0803712766905565
-0.03921453117201492
-0.1759544843524738
0.05113110906974171
-0.057838553417466104
-0.27236651708142473
-0.09141658300969051
-0.03187573698452198
-0.11594757607821507
0.07587902698330139
-0.11295681835573647
-0.07967253687405149
-0.05844286822698041
0.02263954603086293
-0.08744992968898345
-0.11004743382384538
-0.04706980705914157
-0.12789193947132776
-0.026474839656227638
-0.18506363178934737
-0.01710179280899088
0.16587304717506682
0.07881349627358528
-0.05913927298598616
-0.01229016056377594
-0.052055444238992304
-0.05730227334784892
0.021841217216727514
0.026173066921367432
