@CO	shape:(170,)
@CO	dtype:float64
VALUE_0
-0.27972248401061417
0.03327646326180537
-0.04868993822815736
0.05168291476437614
-0.163029569668848
-0.11694576917341389
-0.08773686620258982
0.0739896951170048
0.02104590702675143
0.15076382227380558
-0.06892462551754654
-0.16340172712177328
-0.10805990031690399
-0.031017752793682227
0.052707811033683424
-0.12035802776285587
-0.12673981174228424
0.08711676713197639
-0.09882611402350791
0.14358880344290192
0.0482597088479902
-0.14326307227572796
-0.012399832253420706
0.19360575535028576
-0.1405514412944871
-0.005765304875603594
0.01937096212609466
-0.2187912481438206
-0.0050181684012045365
-0.19375809267684757
0.031855377884908415
-0.03155068863123019
0.045520782385686284
0.011053038586152936
0.0571140108700609
-0.20436557437308292
-0.03747198044645537
0.15349686454801004
-0.1507215210205466
-0.014077076831567998
-0.010440411468553599
0.012285741578320943
-0.15016638716973768
0.018071696051416772
-0.118468097272231
-0.0754537531988927
0.04966922589561663
0.11292196053640607
0.021540071454782338
-0.05647385831364778
0.02581869729090274
-0.10066418178663662
0.03464765166911828
0.04591630869641894
-0.005439625011012237
-0.10232992803896358
-0.11473446057780606
0.034945566378685206
-0.0690386001429801
0.07062585145430623
-0.08285646222607022
-0.04098542603154862
-0.008504635806941498
0.10597626242994038
-0.14582198338921376
-0.028757569824231603
0.040746328482111606
-0.10209988713149401
0.0111647226565951
0.01190063162541924
0.012227764713065687
-0.08104058606045646
-0.13718368572154302
-0.03764059707703889
0.005166948154317725
0.012286107651053198
0.022268613880094792
-0.11044436653648253
-0.10663755756807138
-0.09093716683656662
0.02922738720833699
-0.07710517989578833
0.018528271242810423
-0.0020782035486826226
0.06239847173496898
0.018109940967823396
-0.035223654213635186
-0.00575807559597307
0.022942322077231236
0.0529342202100959
0.24465083589454864
-0.17380856289515365
0.013826711493433272
-0.08398375934601121
-0.012739949587710636
0.019486716071491484
-0.06887922756485976
-0.22426447517280326
-0.047882740443321734
-0.18536050160641881
0.10996867361994504
-0.06795939419948133
0.1512076934998171
-0.12786733570947148
0.1626651893991807
-0.07320484810116058
0.3043579300365798
0.0024491371448395398
-0.10589231055481407
0.043433006756254985
0.05000156664832146
-0.02126470809760081
-0.10086835941263587
-0.07141770351233752
-0.08494267334538683
-0.03511263791063045
-0.010621229767407389
0.03311392022112499
-0.12888377068867046
0.10626321322902574
0.22141265511086727
-0.05216186018079376
-0.0866755050684774
-0.08686640968089158
0.1613239181867682
0.011253971741378902
-0.1167560753334532
-0.03387328647609408
-0.09572495139171587
0.085398858712882
-0.12330219920743743
0.12315902250010034
-0.17890810870831453
-0.041761393066034345
-0.16561911106921207
0.07175620905063662
-0.08610651062191288
0.043014310717281595
0.023737268814140473
-0.09092343489628134
-0.020546838084580413
-0.09205208464508884
-0.06668723995509505
-0.1722044588820362
0.02476398258607613
-0.06906909967058988
-0.2551169971007689
-0.12987670913702506
-0.04644619848316536
-0.10152714769100261
0.10789498028814722
-0.0992153384341576
-0.0731623066985513
-0.07257012223617672
0.0014958387775203862
-0.11362638761215993
-0.10599838423113722
-0.029216583328152263
-0.12161461298629649
-0.01324008794158091
-0.16343859337619657
-0.03136024202633334
0.17441924719296045
0.09554728555276062
-0.05549782471182087
-0.004699799970580885
-0.05256115063331951
-0.03521648096326693
0.025294693922649884
0.02181576168327312
