@shape=(148,)
@dtype=float64
-0.00043140092805446723
-0.0471333096485681
0.044659941886234372
0.011873927616892793
0.024212710431005136
-0.0083121187135069847
0.012704328505348436
0.0033333973647892571
-0.020190316886216298
-0.026116669801762575
0.043321353287420053
0.034331792037712375
0.032146539330340528
-0.007023699225862207
-0.027310017586024325
-0.025679508750324983
0.021315266369330774
0.013978390855034883
0.010501634958758938
-0.027223028966088206
-0.020157654772444286
0.048559807951992551
-0.0073670969610436388
-0.00076421986341468004
-0.025211319868193055
0.024092596906934022
-0.073995231156393962
0.073223794969956915
0.017082117579301743
0.031534584884995595
0.012191116080052718
0.016164105849794119
-0.069290169147579239
0.025270112738514008
-0.013587309708748736
0.019293551085360471
0.03391813391855425
-0.032353500098815526
0.012440373434896117
-0.015849101123921881
0.026278882999178448
0.057821073871814635
0.018147325760154036
0.052717920453010367
-0.048348617279910265
0.0010595632128334804
-0.036572335023071535
0.043434562489166037
-0.024655860690253256
0.0047752974091425692
0.01758523523576257
0.038609835316238822
0.033699333613845688
-0.02628089469738595
-0.029881546912716814
-0.029159166219987511
-0.018451807241215805
-0.014274293147560806
-0.074724391756787051
-0.039769752352081765
0.057331506245840096
-0.010985423021938636
0.021087751578476668
0.062196786512938591
-0.056219835723357682
-0.033615504267605331
-0.044902076674968129
0.012546282495611721
-0.032411045580422099
0.044043423775549012
-0.039935922313690503
-0.035479683320117125
-0.02452319556736382
-0.025762682112725824
-0.031049462119473195
-0.010352211212677844
0.021800116635926056
0.0034407685706020616
-0.0076751560845702066
0.020386882769641679
0.01506664634999608
-0.0520390818657189
0.046542551181883732
-0.040607764884102303
0.0034725565141139514
0.039576358442115059
-0.013582982660819001
-0.046862482849507066
-0.022105888130808715
-0.020989681737620065
-0.01330123845961389
0.0073515495009239158
-0.059692255661009878
0.063652308939530541
-0.024272295918754815
0.0092066288664479322
-0.023334539446601511
0.023063954340504293
0.0063828797717094083
-0.061876899996112532
-0.0302406454277203
0.0032974937466288337
-0.04276489406617405
-0.079480935383872839
-0.067640762770493468
-0.033519054100465712
0.030003931369385731
-0.040122723523594195
-0.047698122002053159
-0.044162621325142259
-0.0036381346807693947
0.026493872856536958
0.0017986341457002231
-0.037814595634250756
-0.026045224266522504
-0.12052253339755645
-0.042487835746852942
0.0057513057913603479
0.076650271987267843
-0.038674109098256942
0.018552026903115134
-0.014299463515181781
-0.032709347031461118
-0.00012215811577300255
-0.044000070621231326
-0.013191704323286195
0.048298590269368322
0.02262570508113261
-0.0069556421761759026
-0.021613111138313369
-0.063112803240826104
-0.045175328762296206
-0.022051113156867995
0.079148967903580586
-0.010499538676406212
0.0030393097720364031
-0.024674762288678813
-0.011834647506463479
-0.047573943129854877
-0.021745887543309472
0.013412484676104139
0.079612224312795132
-0.0062236865516368898
0.065445558717115562
-0.015795586006759912
-0.028359495938773467
-0.042479360925922555
0.070299472955707668
