@CO	shape:(170,)
@CO	dtype:float64
VALUE_0
-0.03192453319047025
0.007453686815985044
0.06035186380549903
0.034059050799069866
0.24163634347737206
-0.07165060556198688
-0.14032754964457558
-0.14583768277913126
0.041408968573680205
0.01819201258321624
-0.1410661657470208
0.06355616122453159
0.04770576988449044
0.1367400580081193
0.03247188497443554
-0.00839294195878807
-0.033047428941161555
0.09848220270613409
0.023776092988576133
-0.036758990548914544
-0.00487534386682125
-0.007329973229225323
-0.03531770970244633
-0.09076502674469566
-0.02156300748832011
-0.11466898554629337
-0.19783760779207998
0.14715392069742148
-0.007292659871936298
-0.12538175596432957
-0.06164222640924159
-0.0141064202847299
-0.08054350166930077
-0.12422882899125785
-0.08821580817424163
0.0418712707785848
0.08209800732263683
-0.11409496727941804
0.0871808159006138
-0.14411048746896724
0.01720676264808976
-0.07929171119819266
0.03060335159043963
-0.13905531439322608
0.10477309028813314
0.04177398026410065
-0.028624060019196082
-0.16157643835433377
0.12912867598519331
-0.2217934826968501
-0.1331058807000569
-0.0340654126058169
-0.19546317341490807
-0.0633912740030352
0.08781520234292756
-0.05929731311035137
-0.07231304306147977
-0.04385892706558747
0.04177948946290493
-0.07441842937614845
0.06891505924675193
-0.07542133549661054
0.04110815522752892
-0.04139054482753679
0.00023178383965966932
0.09789600787384668
-0.15879485602779275
0.033209531140517425
-0.003092344536887752
-0.08918536431404007
0.029880109899520776
-0.04082338733770427
-0.029637299316391835
0.06883763255706586
-0.10619524325492313
-0.11113810761368577
0.10704599283348451
-0.02363069671456764
-0.1213591462466187
-0.0027025921408940917
0.011544599573036697
-0.11056987485720253
-0.11547669547096052
-0.0864683383077478
0.0646807402708469
0.18373832382244337
-0.15630790741846526
-0.0737673274412456
-0.0593961017132737
-0.068767781534632
-0.06588261688932315
-0.028655350312591265
-0.08260518777948626
-0.1242615951837387
0.03744421373687494
-0.04552160586771364
0.07107764177834024
-0.0899436537910256
-0.09001197505285143
-0.10989645469313694
-0.13293754717077266
0.009155127631951676
-0.09010096411970457
-0.023992104849545903
0.03472254460134588
0.1266213080247575
-0.11117417018410021
-0.08114222232150303
0.1498023530953785
0.13148752464490665
-0.15785611346093928
-0.187288599677334
-0.09303383570909107
-0.0806794841175162
0.039325539426527015
0.05977767683015013
-0.20164516032485402
-0.17366819664414246
0.21691950560106385
0.05074829439818612
-0.16212483060836097
-0.0542863183743929
0.027854563994097255
-0.04794411733630621
-0.18812714315089835
-0.1061339899635441
0.027573653189962008
-0.049034976768070206
0.041915694338535966
0.03287107263722633
-0.10006932084059368
0.008218033374931013
-0.054532019613562986
0.031622370273995885
0.020062916296314192
-0.12483411259440921
-0.006310745335519977
0.0027032404564878076
-0.09366519689259821
0.012447456745965238
0.11200844935752093
0.04711185486923407
0.008499452400489481
-0.03386452932327202
-0.10446236323123027
-0.04381060424386747
0.04986043265886391
0.06578230920174322
-0.012262917211461612
-0.059910870164105706
0.05261334983849647
0.03248168939810587
0.030270292787205073
0.012796560042620062
-0.06056490571565329
-0.16060028711897678
0.13197067516587663
-0.10688054955653793
-0.055623069852567875
-0.031060429370042116
-0.11884940330799659
-0.07113542757269715
0.024804902841279876
-0.0958394112384608
-0.018562781380558505
0.032322567335650434
-0.01845319742752716
-0.03704904102263295
-0.053351769069621184
-0.000979648037070353
