ROW_NAME	TARGET_0	TARGET_1	TARGET_2	TARGET_3	TARGET_4	TARGET_5	TARGET_6	TARGET_7	TARGET_8	TARGET_9	TARGET_10	TARGET_11	TARGET_12	TARGET_13	TARGET_14	TARGET_15	TARGET_16	TARGET_17	TARGET_18	TARGET_19	TARGET_20	TARGET_21	TARGET_22	TARGET_23	TARGET_24	TARGET_25	TARGET_26	TARGET_27	TARGET_28	TARGET_29	TARGET_30	TARGET_31	TARGET_32	TARGET_33	TARGET_34	TARGET_35	TARGET_36	TARGET_37	TARGET_38	TARGET_39	TARGET_40	TARGET_41	TARGET_42	TARGET_43	TARGET_44	TARGET_45	TARGET_46	TARGET_47	TARGET_48	TARGET_49	TARGET_50	TARGET_51	TARGET_52	TARGET_53	TARGET_54	TARGET_55	TARGET_56	TARGET_57	TARGET_58	TARGET_59	TARGET_60	TARGET_61	TARGET_62	TARGET_63	TARGET_64	TARGET_65	TARGET_66	TARGET_67	TARGET_68	TARGET_69	TARGET_70	TARGET_71	TARGET_72	TARGET_73	TARGET_74	TARGET_75	TARGET_76	TARGET_77	TARGET_78	TARGET_79	TARGET_80	TARGET_81	TARGET_82	TARGET_83	TARGET_84	TARGET_85	TARGET_86	TARGET_87	TARGET_88	TARGET_89	TARGET_90	TARGET_91	TARGET_92	TARGET_93	TARGET_94	TARGET_95	TARGET_96	TARGET_97	TARGET_98	TARGET_99	TARGET_100	TARGET_101	TARGET_102	TARGET_103	TARGET_104	TARGET_105	TARGET_106	TARGET_107	TARGET_108	TARGET_109	TARGET_110	TARGET_111	TARGET_112	TARGET_113	TARGET_114	TARGET_115	TARGET_116	TARGET_117	TARGET_118	TARGET_119	TARGET_120	TARGET_121	TARGET_122	TARGET_123	TARGET_124	TARGET_125	TARGET_126	TARGET_127	TARGET_128	TARGET_129	TARGET_130	TARGET_131	TARGET_132	TARGET_133	TARGET_134	TARGET_135	TARGET_136	TARGET_137	TARGET_138	TARGET_139	TARGET_140	TARGET_141	TARGET_142	TARGET_143	TARGET_144	TARGET_145	TARGET_146	TARGET_147	TARGET_148	TARGET_149	TARGET_150	TARGET_151	TARGET_152	TARGET_153	TARGET_154	TARGET_155	TARGET_156	TARGET_157	TARGET_158	TARGET_159	TARGET_160	TARGET_161	TARGET_162	TARGET_163	TARGET_164	TARGET_165	TARGET_166	TARGET_167	TARGET_168	TARGET_169	TARGET_170	TARGET_171	TARGET_172	TARGET_173	TARGET_174	TARGET_175	TARGET_176	TARGET_177	TARGET_178	TARGET_179	TARGET_180	TARGET_181	TARGET_182	TARGET_183	TARGET_184	TARGET_185	TARGET_186	TARGET_187	TARGET_188	TARGET_189	TARGET_190	TARGET_191	TARGET_192	TARGET_193	TARGET_194	TARGET_195	TARGET_196	TARGET_197	TARGET_198	TARGET_199	TARGET_200	TARGET_201	TARGET_202	TARGET_203	TARGET_204	TARGET_205	TARGET_206	TARGET_207	TARGET_208	TARGET_209	TARGET_210	TARGET_211	TARGET_212	TARGET_213	TARGET_214	TARGET_215	TARGET_216	TARGET_217	TARGET_218	TARGET_219	TARGET_220	TARGET_221	TARGET_222	TARGET_223	TARGET_224	TARGET_225	TARGET_226	TARGET_227	TARGET_228	TARGET_229	TARGET_230	TARGET_231	TARGET_232	TARGET_233	TARGET_234	TARGET_235	TARGET_236	TARGET_237	TARGET_238	TARGET_239	TARGET_240	TARGET_241	TARGET_242	TARGET_243	TARGET_244	TARGET_245	TARGET_246	TARGET_247	TARGET_248	TARGET_249	TARGET_250	TARGET_251	TARGET_252	TARGET_253	TARGET_254	TARGET_255	TARGET_256	TARGET_257	TARGET_258	TARGET_259	TARGET_260	TARGET_261	TARGET_262	TARGET_263	TARGET_264	TARGET_265	TARGET_266	TARGET_267	TARGET_268	TARGET_269	TARGET_270	TARGET_271	TARGET_272	TARGET_273	TARGET_274	TARGET_275	TARGET_276	TARGET_277	TARGET_278	TARGET_279	TARGET_280	TARGET_281	TARGET_282	TARGET_283	TARGET_284	TARGET_285	TARGET_286	TARGET_287	TARGET_288	TARGET_289	TARGET_290	TARGET_291	TARGET_292	TARGET_293	TARGET_294	TARGET_295	TARGET_296	TARGET_297	TARGET_298	TARGET_299	TARGET_300	TARGET_301	TARGET_302	TARGET_303	TARGET_304	TARGET_305	TARGET_306	TARGET_307	TARGET_308	TARGET_309	TARGET_310	TARGET_311	TARGET_312	TARGET_313	TARGET_314	TARGET_315	TARGET_316	TARGET_317	TARGET_318	TARGET_319	TARGET_320	TARGET_321	TARGET_322	TARGET_323	TARGET_324	TARGET_325	TARGET_326	TARGET_327	TARGET_328	TARGET_329	TARGET_330	TARGET_331	TARGET_332	TARGET_333	TARGET_334	TARGET_335	TARGET_336	TARGET_337	TARGET_338	TARGET_339	TARGET_340	TARGET_341	TARGET_342	TARGET_343	TARGET_344	TARGET_345	TARGET_346	TARGET_347	TARGET_348	TARGET_349	TARGET_350	TARGET_351	TARGET_352	TARGET_353	TARGET_354	TARGET_355	TARGET_356	TARGET_357	TARGET_358	TARGET_359	TARGET_360	TARGET_361	TARGET_362	TARGET_363	TARGET_364	TARGET_365	TARGET_366	TARGET_367	TARGET_368	TARGET_369	TARGET_370	TARGET_371	TARGET_372	TARGET_373	TARGET_374	TARGET_375	TARGET_376	TARGET_377	TARGET_378	TARGET_379	TARGET_380	TARGET_381	TARGET_382	TARGET_383	TARGET_384	TARGET_385	TARGET_386	TARGET_387	TARGET_388	TARGET_389	TARGET_390	TARGET_391	TARGET_392	TARGET_393	TARGET_394	TARGET_395	TARGET_396	TARGET_397	TARGET_398	TARGET_399	TARGET_400	TARGET_401	TARGET_402	TARGET_403	TARGET_404	TARGET_405	TARGET_406	TARGET_407	TARGET_408	TARGET_409	TARGET_410	TARGET_411	TARGET_412	TARGET_413	TARGET_414	TARGET_415	TARGET_416	TARGET_417	TARGET_418	TARGET_419	TARGET_420	TARGET_421	TARGET_422	TARGET_423	TARGET_424	TARGET_425	TARGET_426	TARGET_427	TARGET_428	TARGET_429	TARGET_430	TARGET_431	TARGET_432	TARGET_433	TARGET_434	TARGET_435	TARGET_436	TARGET_437	TARGET_438	TARGET_439	TARGET_440	TARGET_441	TARGET_442	TARGET_443	TARGET_444	TARGET_445	TARGET_446	TARGET_447	TARGET_448	TARGET_449	TARGET_450	TARGET_451	TARGET_452	TARGET_453	TARGET_454	TARGET_455	TARGET_456	TARGET_457	TARGET_458	TARGET_459	TARGET_460	TARGET_461	TARGET_462	TARGET_463	TARGET_464	TARGET_465	TARGET_466	TARGET_467	TARGET_468	TARGET_469	TARGET_470	TARGET_471	TARGET_472	TARGET_473	TARGET_474	TARGET_475	TARGET_476	TARGET_477	TARGET_478	TARGET_479	TARGET_480	TARGET_481	TARGET_482	TARGET_483	TARGET_484	TARGET_485	TARGET_486	TARGET_487	TARGET_488	TARGET_489	TARGET_490	TARGET_491	TARGET_492	TARGET_493	TARGET_494	TARGET_495	TARGET_496	TARGET_497	TARGET_498	TARGET_499	TARGET_500	TARGET_501	TARGET_502	TARGET_503	TARGET_504	TARGET_505	TARGET_506	TARGET_507	TARGET_508	TARGET_509	TARGET_510	TARGET_511	TARGET_512	TARGET_513	TARGET_514	TARGET_515	TARGET_516	TARGET_517
ROW_0	-0.69305403721850889	-0.60072037869306005	-0.84815903799375669	0.91884464643751995	1.6661816548731507	0.45410928718263616	-0.75633754022685007	0.47901010694718987	0.81424906777281814	1.5456596985641742	0.091220299447842573	-1.1617122286010428	-0.90743276229271819	1.0197728308020411	0.47888194822418106	-0.008075877848341826	1.6846522275409783	-1.3183559159467115	0.0036117717578546299	0.03373367511710923	-1.5516873378803886	-1.849377523692588	-1.0924851972717942	-0.18825026130692799	-0.11315486261779036	1.4003104965309128	0.25543599668850819	-0.48439286295786071	0.81104042152391909	-0.93954486128712	-0.021368874724268704	0.29981301912876906	0.2302752110551107	0.72994082371410385	0.91372116904294365	0.20203816798638322	-1.0078517103840656	0.67779862746456843	0.98311280123691747	0.50504892301857096	1.2932217704754336	-0.3189617714867426	0.083069957434648928	1.1189296631034797	-0.39228329524779892	-0.3610100926365804	-0.27581272618501629	-0.26469268020714892	-0.42455149200495418	-0.4926169822494057	-0.98382761386707496	-0.50760572919625024	-0.031508426254579412	0.25262806334348131	0.067884462165721013	-0.63180365271685524	-0.85819267877708183	-0.39682308592449528	1.080989300805111	-0.159756558925054	-0.98958333170823642	-0.25312579378901112	-0.085824830901212512	-0.74391127007586477	0.62613782682715113	0.41114436329239651	-0.8617718673748922	-0.1056448168575246	-0.21421873717877038	0.53404915664458974	0.72613970807368133	1.6017192140083885	0.4571173129453564	0.44993315198422623	-0.16511757237599467	0.50805918003938388	-0.61440321897626171	0.40095652858865205	0.0091038492207079803	-1.3023509621058114	-0.096325992253712647	0.38721516637555536	-0.12209458884624577	-0.20851262306607907	-1.1484500984607464	-0.4206123572298916	-0.27912041237749663	0.7779446207597468	0.35431105415261799	-0.087974225552068977	0.072143900615031731	0.25105117482806116	-0.83984511650083216	0.59665685485586217	-1.0169428746325111	-0.2299166814525489	0.88187646840824307	-1.2001968502165654	0.50929025552747198	1.3684658419145219	0.29616887284769478	0.46051713305909453	0.3571907504765276	0.14095970551471601	0.18512320215360184	0.82384547937182984	0.60100340599804258	-0.14465606403102391	-0.67161720644593825	0.1368445745438942	-0.35882007434633356	-0.84913813508195746	-1.1970129307664541	-0.098374020142798696	0.56651743522019027	-0.24572640502455356	-0.8302339124382262	-0.64747045417617932	0.62125904298687495	0.38116512649303741	-0.32173927175601824	1.6831000629972721	-0.21053962955396471	0.044748263795799478	-0.16344175176634429	-0.62174291533420301	1.4282711830353356	-0.39091560036934681	0.66555374069410966	-0.54522504430704	0.91096672769993903	-0.8568859467412635	-0.15261868119903929	1.1360474587997675	-0.28973195170554528	0.88793741326173548	-0.81383791387733861	0.090056748332776312	1.1172451711004088	0.087902462981426427	-0.19114964557523875	0.053032434874853263	-1.061074689237588	-0.80218929521808335	0.99007561849686343	0.63695161168244085	0.29002407726897445	-0.7103529173368921	-1.1317001017550727	1.3513323246979962	-0.32690375743847633	0.76376243336997773	-0.085648007969129386	-0.44951873556158656	0.88445741712343351	-0.087743847779057374	-0.3255022764365274	-0.0070704714089822856	-0.049412415565813141	-0.20469890617743963	-0.46941763003556625	-0.19874734886435486	-0.2449996620640377	-0.79822541573367534	0.52374420445792691	-0.55832555808067186	-0.15356259320613627	-0.27636258665303731	-0.78733599853026182	1.0718988977544186	0.39588153974492996	1.0790407639781188	0.38093216413843989	-0.66055785007343537	-0.6429696742740405	0.38680514926126269	-0.25782225139382509	-0.40900281751148293	1.3990031814306965	0.45899381928992472	-0.44979063371860717	-0.12759300098140525	-1.1862645829126912	-0.62025296733741353	-0.51143564931922902	-0.63441539554861359	0.24934964699797221	-0.18589244487580403	0.71708609777320997	-0.062434484886021532	0.97482841323001002	-0.55586118023901832	0.88533471795412411	0.81631884795932652	-0.36840233399480449	0.33332432905803999	-0.03162333151048332	1.1663788153272554	-0.24924044056682015	-0.28691769257020128	-1.0428288441138047	0.80571297104790185	-0.41357292828479542	0.2556683284886711	0.45654654156063385	0.81758699948154712	0.15385110938398872	0.2277534324239347	-0.37263519388893235	0.1897565888371836	-0.3279463139393976	0.75305380884821727	0.13905979721593287	0.11467964465903499	0.26927063501629994	0.0030885746036714962	0.23915493912531655	-0.22885392031531959	-0.38168315892854043	0.31572735294704879	-0.17169573951264383	0.55716056629263466	0.15320745945964637	-0.74140022775357906	0.34983635897375132	-1.736149845133967	-0.93833429143094416	-0.08140536372039292	0.61520750082023856	0.70382557263832557	0.10861558310574915	-0.83022015266253224	-0.63066948875394879	0.56336545192512555	-1.2697340116149787	0.07324038866262074	-0.49455083732692151	0.64949149679931106	1.1499863793300567	-0.31945173352340483	-0.31218842736900987	-0.19379548084194614	-0.81602746769160883	-0.31608266136706709	-0.50356621628339437	-0.62345894490413256	0.83331517422611034	-1.446927214226376	0.010047517448492053	0.026594130764315951	0.27152650874577011	-0.029314840142959906	0.64914106744599942	0.18644942329359954	-0.8151726820430063	0.4114113877903342	0.32928332736890908	0.18234167945186244	0.25341887059958468	0.34121349872503365	-0.94252126873133035	-0.036033393576137815	-0.2518892611674351	-0.98619803258541405	0.77660490191913323	0.87448560900822314	-1.0386807932632924	0.36903378336487153	-0.88837672738040308	-0.4456189901303273	-0.24558255955819805	-0.60469170282227946	1.5188611759924007	0.14041068638930601	-0.31724661162568668	0.72539081858309196	1.0154313091076628	0.2015167032189342	1.5228543875689897	0.47944215249640348	0.02173791361706014	-0.096596160740108641	-0.60394512620665008	1.0054140203900925	-0.33093425194239406	-0.30165576425352086	-1.1298181531867633	-0.5436323676515028	-0.11608463036817548	0.865865980567742	0.87809213172404554	-0.11799178312568093	2.0680462683564471	0.22737922321107801	-0.71639373767008863	-0.97010977875932836	-1.2600596562062092	-0.4763471971569051	-0.27140988071867195	-0.4646265038106277	-0.86326215561384434	-0.46128372376412013	0.58483870224060397	-0.61485211008641993	0.31138227646234745	-1.5853988956746659	-0.11545135764743228	-0.39601787044859427	-0.56108154182007375	-1.3828522215935932	0.098242274661751394	0.40687459647751484	0.057763077247193498	0.65876988297424321	0.3794542252056225	-0.79308948629889453	1.0807853247989339	-0.14096721514516142	-0.96988431692012	-0.78418757034842845	-0.86585244798452166	0.81584291529826836	-0.45587872087058617	0.092360972844376013	-0.35365074726107237	1.1001672561053359	-0.79837652267572257	-0.20568786146575294	0.35200301833924469	-0.44015278629568816	-0.40362587620206042	0.38810427633072375	0.10457685797772495	-0.1788609960763281	-0.75976957186053617	-0.41915257180691395	0.084617791239517279	-1.2121529897648904	0.50567274619865954	-0.034323301694891797	0.26714024316551199	-0.078947570984240573	-0.25356755732907538	-0.8640243310193193	0.36435026708343393	2.3531517808656717	-1.4328490075538449	0.30096830964580967	0.88604019848639481	0.62452324654830893	-0.74725961359213744	-0.044669664971471103	-0.72342299086589723	-0.73704089669735218	-1.5066557784107968	0.70258798799497324	-0.080807455183508362	-1.1326264695138097	-0.58925455537973692	-0.62239493480673513	1.1285634092080983	-0.82575804483987492	1.1797359202648015	0.48173512180229799	0.09275606755333958	0.52568161287860238	-1.2546292225394455	0.45205911316123082	-0.019462897686673589	-0.57416020688936165	0.51842950492619599	0.18091538574857879	0.6273611358316753	0.82829273805923531	1.1235745082590425	0.17277734344785145	-0.028624651693457206	-0.24398441021100115	0.17127095214803675	-0.06716466569653036	-0.79005869949591612	-1.0332793278356289	0.048018920674809284	0.42367676940990889	0.37296729299925624	0.37492673798390985	-0.32234655412886198	-0.083183255358856678	-0.58951460177720827	0.36216498038723333	-0.53228499504133098	-0.57754556669624724	-0.15714420724950551	-0.34451189983620339	-0.37002667952571178	0.96533918314855249	0.4998616723668543	0.14298811987564539	-0.72641729578381975	0.46828213810209462	-0.98946140242553615	0.92331946703467405	0.65581618365692695	0.21974578318591412	0.32249105847131238	0.0082484515806387649	-1.1082580303516143	-0.70601769617870136	-0.76434964865759392	-0.28656110045341959	-0.55451244471612193	0.83906844684856963	-0.34950177251687198	0.46688375120985359	-0.022040514368520104	0.16703590525921716	-1.0478660455298077	-0.2742739513007923	0.50714275293794575	-0.31856162718619924	-0.3448969898067929	-0.39202327245365259	-0.22922397087867766	-0.62931655988004442	0.47440106241249075	-0.45619221443150815	-0.48197255986871457	-1.2977101165345353	-1.3839033898790898	0.011586559148724392	0.32129690463914112	0.32423015625812934	-0.21579309413561404	-1.3060629300903264	-0.29446541514766916	-0.3087888237941428	1.4426053604844304	-0.55267006065405644	0.56955082135282264	1.0489947018883214	0.60939498556149396	-1.3533319281645999	0.23817718010037525	1.9715911158879142	-1.1970238815003891	0.088884218415973784	-0.35643875647545292	-0.36756303769828619	-0.34712828532219048	-0.77932576571038725	-0.29913411873433038	-1.3146849016416626	0.12716699614725996	-0.9729143175580377	1.070971121181497	-1.11582426298767	-0.090200424842687851	0.99478056544441995	0.068020761121986822	0.69316513839792959	0.25359264304159074	0.11872578400562026	1.1648068192253498	1.1876429017244385	-0.52527383024613172	0.36186300032916979	-0.051781332320412363	0.88292576895039454	-0.62559920658832813	0.18495263362462167	-0.94850328997407019	1.2375968571681917	0.0057913364348980883	-0.75630388673243165	0.41727957061367488	0.011579611432109664	0.055980010689082323	0.58938289366467778	-0.98036204315664865	1.6296562430234649	-1.4369963498402933	0.35042761534799194	0.39999213437756231	0.21178659808582076	-0.63043859540269043	-0.53702381421352341	0.80880195455928272	0.12874468230334288	1.575507258440638	-0.85758628261363246	0.76833667005400452	0.29378534974331622	-0.86833615803932251	-1.6917603264236065	-0.53678823272132747	-0.27390994068944075	-0.34282413580210164	0.73623711255977842	-0.58710864755908687	0.88619676179597662	1.5571312354495954	-0.08451183012946531	-0.8460748221139075	0.12324935009993307	-0.82861692446830615	1.0696402169313546	-0.3854793990282333	0.19415935060576853	-0.83493228368072081	-0.37111829725413931	-1.3640407482655921	-0.48231549330102752	-0.060342375423676965	0.50415229499870007	0.48540536676400886	0.86703857473113699	-0.18600385204122824	-0.43370427903015424
